#pragma once
#include "utils.h"


inline constexpr float HARDCODED_PSQT_WEIGHTS[25][64] =
{
	// white pawns
	// 64 values, one for each square
	{
		1.0773f, 0.989515f, 0.909812f, 0.990714f, 1.04574f, 1.05496f, 1.05529f, 1.05967f,
0.939393f, 1.01321f, 1.0634f, 1.07575f, 1.02357f, 0.914521f, 0.968026f, 1.0819f,
0.950535f, 1.03289f, 1.05263f, 0.989393f, 0.953162f, 1.02034f, 0.991909f, 0.996621f,
1.07181f, 1.07986f, 0.991452f, 0.977445f, 0.914675f, 1.01735f, 1.05706f, 0.997945f,
0.960724f, 0.991838f, 0.94587f, 1.09212f, 1.02664f, 0.952256f, 0.940558f, 1.01808f,
0.917817f, 0.986251f, 1.07429f, 1.08152f, 0.947193f, 1.01155f, 0.936519f, 1.03283f,
1.02524f, 0.973549f, 0.922483f, 0.915721f, 0.970033f, 0.969981f, 0.957871f, 0.980224f,
1.00752f, 1.02963f, 0.974385f, 1.09806f, 1.05284f, 0.988364f, 1.08877f, 1.01817f,
	},
	// white knights
	{
		2.83837f, 3.24034f, 3.05752f, 2.9608f, 2.89452f, 2.93029f, 2.83041f, 2.97177f,
2.84833f, 3.22745f, 3.05258f, 3.01902f, 2.93505f, 2.78815f, 2.86456f, 3.20395f,
3.2468f, 2.87335f, 3.29595f, 2.95382f, 3.23226f, 2.71281f, 3.19798f, 3.14126f,
3.16267f, 3.1036f, 2.9502f, 3.13041f, 3.22436f, 3.03403f, 2.81902f, 3.02029f,
3.04772f, 3.29596f, 3.00628f, 3.01707f, 2.94747f, 2.80486f, 3.05365f, 2.78481f,
2.95811f, 3.20447f, 2.97945f, 3.13763f, 2.75296f, 3.25973f, 3.28328f, 3.20633f,
3.29003f, 3.07736f, 2.96181f, 3.22487f, 3.06819f, 2.98937f, 2.9004f, 2.72354f,
2.93022f, 3.04918f, 2.93609f, 3.00109f, 3.11902f, 3.14913f, 3.2184f, 2.99518f,
	},
	// white bishops
	{
		3.14069f, 2.81984f, 3.22702f, 3.13967f, 2.74232f, 2.79832f, 2.90209f, 3.21292f,
3.0249f, 3.21267f, 2.84656f, 2.72645f, 3.06673f, 3.15458f, 2.76467f, 2.8343f,
3.04932f, 2.84211f, 2.71101f, 2.81269f, 3.21682f, 3.07508f, 3.1f, 3.07057f,
2.91317f, 2.94385f, 3.27186f, 3.09274f, 3.26459f, 3.08335f, 2.8523f, 2.83834f,
2.75164f, 3.18799f, 2.74436f, 3.11009f, 3.07705f, 3.0071f, 3.1409f, 2.80899f,
2.99801f, 3.24846f, 2.91974f, 3.0792f, 2.92387f, 3.13448f, 3.21587f, 2.79741f,
2.96012f, 3.10595f, 2.86319f, 2.76041f, 3.27614f, 3.17295f, 2.94082f, 3.06514f,
3.01915f, 3.26787f, 2.81311f, 2.92542f, 2.73002f, 3.20094f, 2.72571f, 3.1794f,

	},
	// white rooks
	{
		5.04001f, 4.84775f, 4.70805f, 4.65575f, 5.1814f, 4.59765f, 5.33079f, 5.49133f,
4.83252f, 4.67886f, 5.00663f, 5.33112f, 4.60428f, 4.75105f, 5.45016f, 5.42275f,
5.45859f, 5.22591f, 5.35558f, 4.68256f, 4.92804f, 4.96046f, 5.35235f, 5.3831f,
4.91792f, 4.83945f, 5.00816f, 5.34295f, 5.03818f, 4.72162f, 4.54595f, 5.05621f,
4.96466f, 4.94752f, 5.26848f, 5.10392f, 4.95528f, 4.96132f, 5.21912f, 4.82232f,
5.01797f, 5.35684f, 4.53688f, 4.68737f, 5.1638f, 5.06095f, 5.25963f, 4.6521f,
4.91344f, 5.09684f, 5.00312f, 5.04475f, 5.35157f, 5.09242f, 5.2945f, 5.44962f,
4.51541f, 5.01912f, 5.49055f, 5.2264f, 5.0476f, 5.39612f, 4.89788f, 4.51328f,
	},
	// white queens
	{
		9.33182f, 9.19947f, 9.31463f, 9.69584f, 9.61807f, 9.22363f, 8.79405f, 9.78821f,
		8.57526f, 8.91083f, 8.49797f, 9.86728f, 9.73822f, 9.44984f, 8.67805f, 9.33947f,
		8.27376f, 8.476f, 9.62539f, 9.1604f, 8.70157f, 8.74768f, 8.72096f, 9.3608f,
		8.61875f, 8.41937f, 8.57761f, 8.50529f, 8.52248f, 9.0191f, 8.56008f, 8.27204f,
		9.76378f, 8.61793f, 8.74818f, 9.23526f, 8.78728f, 8.83963f, 8.25126f, 9.7303f,
		9.34953f, 9.5997f, 9.2936f, 8.20183f, 9.76338f, 9.51354f, 9.64766f, 8.47471f,
		8.69285f, 8.99962f, 9.80149f, 9.3666f, 9.88536f, 9.43932f, 9.49049f, 8.51254f,
		8.16446f, 9.07266f, 8.17418f, 9.37267f, 8.60482f, 8.65681f, 9.04564f, 9.56672f,
	},
	// white king
	{
		0.0999011f, 0.107264f, 0.102745f, 0.0962533f, 0.100514f, 0.0948395f, 0.104864f, 0.102194f,
0.0993331f, 0.0984575f, 0.10194f, 0.10845f, 0.108956f, 0.109151f, 0.0970611f, 0.0973758f,
0.108291f, 0.105692f, 0.105255f, 0.093931f, 0.0940041f, 0.0986685f, 0.0929817f, 0.107179f,
0.103034f, 0.108445f, 0.0980841f, 0.105797f, 0.101079f, 0.101186f, 0.0948232f, 0.105419f,
0.0975142f, 0.0940588f, 0.107028f, 0.108578f, 0.0918332f, 0.0911647f, 0.105767f, 0.105678f,
0.109442f, 0.103459f, 0.0986948f, 0.0968446f, 0.0990908f, 0.104438f, 0.103088f, 0.0961895f,
0.0987363f, 0.101557f, 0.102946f, 0.0943849f, 0.0952799f, 0.0910691f, 0.107201f, 0.0951456f,
0.107932f, 0.10342f, 0.107151f, 0.0965344f, 0.105761f, 0.0959655f, 0.10426f, 0.0920732f,
	},
	// black pawns
	{
		-0.967194f, -1.03185f, -0.908865f, -1.0536f, -1.09511f, -0.947264f, -1.07241f, -1.06901f,
-1.08522f, -1.03614f, -1.02364f, -0.951891f, -1.04917f, -0.969701f, -1.03598f, -0.92918f,
-1.09143f, -0.90516f, -1.04551f, -0.958122f, -0.931718f, -0.916203f, -1.06808f, -1.03856f,
-0.917187f, -1.04954f, -1.05059f, -1.00158f, -0.98534f, -0.93961f, -0.977918f, -1.06548f,
-1.02953f, -0.959566f, -1.07549f, -0.910662f, -1.08162f, -0.956314f, -0.960709f, -0.976952f,
-1.08666f, -0.993093f, -0.90911f, -1.05455f, -1.04917f, -0.925938f, -0.946123f, -0.974391f,
-1.00648f, -1.00355f, -1.04783f, -0.958829f, -1.05665f, -1.02355f, -0.937008f, -0.912188f,
-0.924683f, -0.937528f, -1.03939f, -1.05231f, -1.08917f, -0.976133f, -0.977222f, -1.00628f,
	},
	// black knights
	{
		-3.089f, -3.05389f, -2.96667f, -2.79764f, -3.14157f, -2.98372f, -3.04292f, -3.14829f,
-2.93068f, -3.08112f, -2.94448f, -3.13169f, -3.10118f, -2.79719f, -3.2757f, -2.8075f,
-3.02717f, -2.84272f, -2.90091f, -3.06604f, -3.14174f, -2.9426f, -2.70214f, -2.73109f,
-2.71335f, -3.26419f, -3.04774f, -3.10777f, -2.79887f, -2.79719f, -3.18458f, -2.97882f,
-2.91068f, -2.89834f, -3.12342f, -3.13764f, -2.72916f, -2.9081f, -3.11784f, -2.78624f,
-3.22757f, -3.13504f, -3.25101f, -3.19318f, -2.91412f, -3.23052f, -2.8188f, -3.21515f,
-2.7347f, -2.7301f, -3.23236f, -2.92026f, -3.1411f, -3.00831f, -3.21674f, -2.85676f,
-2.95863f, -3.25979f, -2.75707f, -2.84285f, -2.70012f, -3.06736f, -2.70937f, -3.00543f,
		},
		// black bishops
	{
		-3.19884f, -2.78325f, -3.06747f, -3.16077f, -2.8155f, -2.82475f, -2.73448f, -2.85488f,
-3.0263f, -3.1894f, -2.71544f, -3.27358f, -3.12141f, -2.94978f, -3.23504f, -2.91036f,
-2.70271f, -2.8309f, -2.76611f, -3.17413f, -2.78551f, -3.05526f, -3.24286f, -2.93216f,
-2.94472f, -2.96826f, -2.98611f, -3.0839f, -2.9577f, -2.79589f, -2.92306f, -2.97317f,
-2.73703f, -2.95456f, -3.23063f, -3.27894f, -3.24682f, -2.77807f, -3.28988f, -2.70956f,
-2.93544f, -3.23578f, -3.12826f, -2.87308f, -2.97471f, -3.02716f, -3.18503f, -3.04402f,
-3.18112f, -3.10212f, -3.17749f, -3.01062f, -2.99755f, -2.86419f, -3.24368f, -3.01418f,
-2.83916f, -2.76403f, -2.96857f, -2.93933f, -3.2878f, -3.10603f, -3.21651f, -2.71739f,
	},
	// black rooks
	{
		-5.48736f, -5.02351f, -5.42368f, -4.92557f, -4.61715f, -4.9044f, -5.39319f, -4.79453f,
-4.97467f, -5.47721f, -5.30649f, -5.40471f, -4.94063f, -4.96401f, -5.31735f, -5.38624f,
-5.04519f, -4.67336f, -5.06202f, -5.11473f, -5.3173f, -5.39949f, -4.99951f, -4.98247f,
-5.04232f, -4.63682f, -4.58074f, -4.72404f, -4.9424f, -5.13102f, -4.7253f, -5.26578f,
-5.19792f, -4.98065f, -4.62299f, -5.49864f, -5.16627f, -5.24295f, -5.18668f, -4.70505f,
-4.50935f, -5.39344f, -5.49748f, -5.25525f, -4.66506f, -5.16758f, -5.05115f, -5.10622f,
-5.12962f, -4.5054f, -4.9351f, -5.4845f, -5.20423f, -4.86419f, -4.56454f, -4.6648f,
-5.22558f, -5.2146f, -5.22877f, -5.4862f, -5.38052f, -5.15353f, -5.27806f, -5.46743f,
	},
	// black queens
	{
		-8.11611f, -8.59955f, -8.88822f, -8.65402f, -9.03333f, -8.50711f, -9.27792f, -8.20332f,
-8.43941f, -8.77678f, -8.45266f, -8.11697f, -9.40159f, -8.94589f, -9.84396f, -8.30866f,
-8.89311f, -8.11456f, -8.48792f, -8.82902f, -9.74771f, -9.19777f, -8.33193f, -8.36153f,
-8.95009f, -9.65795f, -9.5273f, -9.84917f, -8.93933f, -9.68014f, -9.32806f, -9.81331f,
-9.75688f, -9.77027f, -8.26272f, -9.59641f, -8.46394f, -8.43117f, -8.76278f, -8.66248f,
-8.33113f, -8.19218f, -9.84504f, -8.65745f, -9.15193f, -8.80239f, -8.41374f, -8.38229f,
-8.35815f, -8.92172f, -8.65124f, -8.7943f, -8.14311f, -9.70691f, -9.00428f, -9.11593f,
-8.36161f, -8.19396f, -9.0139f, -9.51063f, -9.27045f, -8.21799f, -8.26148f, -8.30329f,
	},
	// black king
	{
		-0.106649f, -0.100111f, -0.0999437f, -0.0977959f, -0.091572f, -0.105219f, -0.103081f, -0.105525f,
-0.0937839f, -0.106681f, -0.0908062f, -0.0964516f, -0.102386f, -0.0986247f, -0.102052f, -0.103255f,
-0.0978744f, -0.0966702f, -0.103922f, -0.0986912f, -0.106875f, -0.0969235f, -0.0919748f, -0.093241f,
-0.106153f, -0.104374f, -0.10432f, -0.096054f, -0.107677f, -0.102732f, -0.091092f, -0.0946162f,
-0.100995f, -0.104391f, -0.0980304f, -0.102168f, -0.09739f, -0.090867f, -0.0952911f, -0.0930529f,
-0.105743f, -0.0953785f, -0.0915486f, -0.0983902f, -0.099469f, -0.0971426f, -0.09967f, -0.0909561f,
-0.105086f, -0.101897f, -0.0945128f, -0.0966991f, -0.105585f, -0.109276f, -0.0960782f, -0.0945486f,
-0.109022f, -0.101528f, -0.0965187f, -0.0958778f, -0.107394f, -0.106945f, -0.0995554f, -0.103908f,
	},
	// all the other features set to 0 it doesn't matter
};